{
  "type": "logreg_scaled",
  "featureOrder": [
    "meanLogRet",
    "volLogRet",
    "skewLogRet",
    "kurtLogRet",
    "slope90",
    "maxDrawdownInWindow",
    "avgQuality",
    "regimeVol",
    "regimeTrend",
    "regimeConsistency",
    "effectiveSampleSize",
    "topMatchScore",
    "avgTopKScore",
    "rule_p50",
    "rule_p10",
    "rule_p90"
  ],
  "scaler": {
    "mean": [
      0.0029510791313456315,
      0.05349559095943457,
      -0.08629707338009733,
      6.80226176232259,
      0.0027674322318093896,
      -0.30158672099397366,
      1.0,
      0.09693877551020408,
      0.15816326530612246,
      0.5,
      14.459183673469388,
      0.48295721946034426,
      0.3603074805323077,
      0.09979929251060426,
      -0.32050622953552493,
      1.617668361828346
    ],
    "scale": [
      0.009281630978535195,
      0.0519648436038919,
      1.0432082471898623,
      4.522884962242799,
      0.009312843898800993,
      0.2077717017714694,
      1.0,
      0.6744542891021561,
      0.9037815644289182,
      1.0,
      6.231369567001289,
      0.08118317750152568,
      0.021786587973989205,
      0.23014221605068827,
      0.11719534742530387,
      1.3353705748997198
    ]
  },
  "weights": [
    -0.047806060270645497,
    -0.11225184920455418,
    -0.11830737592898485,
    -0.09129362736658725,
    0.011652529945912208,
    0.08382466331230676,
    0.0,
    -0.028557349358539295,
    -0.04139559353835656,
    0.0,
    -0.06105923606821668,
    -0.03560632262419204,
    -0.01884316714520096,
    0.07733490038483189,
    -0.03719150768523222,
    0.07991098044287834
  ],
  "bias": 0.35507608106012156,
  "trainWindow": {
    "requestedFrom": "2011-01-01",
    "requestedTo": "2015-12-31",
    "actualFrom": "2011-10-03",
    "actualTo": "2015-12-28",
    "purgeDays": 30,
    "splits": 5,
    "bestC": 0.01,
    "samples": 196,
    "datasetHash": "a2c35acc52d64759"
  },
  "metrics": {
    "cv_acc": 0.5094871794871795,
    "cv_logloss": 0.7971075011111388,
    "samples": 196
  }
}