{"type": "logreg", "featureOrder": ["meanLogRet", "volLogRet", "skewLogRet", "kurtLogRet", "slope90", "maxDrawdownInWindow", "avgQuality", "regimeVol", "regimeTrend", "regimeConsistency", "effectiveSampleSize", "topMatchScore", "avgTopKScore", "rule_p50", "rule_p10", "rule_p90"], "weights": [-0.08730250991212785, -0.1926059940112105, -0.17456829075537184, 0.2560457724353044, -0.08962492424994219, 0.11267747559286387, 0.0, -0.06766851122574487, 0.14798052386888072, 0.0, 0.1753446859678498, 0.5246074736943689, -0.10565473501024993, -0.13215037236501342, -0.0943142588939096, 0.09495541109799338], "bias": 0.37070150059706014, "scaler": {"mean": [0.0013764281041898471, 0.03692420751653425, -0.2905708770655683, 6.20058230641581, 0.00130919453827231, -0.24389343650525613, 1.0, -0.007194244604316547, 0.12949640287769784, 0.5, 24.177458033573142, 0.5011985125582856, 0.3730504764503411, 0.05555735756968531, -0.2443119864680836, 0.8148210169463722], "scale": [0.005613950040561611, 0.013898329303651693, 0.9951505053122855, 4.16376776111749, 0.006071163649525884, 0.12712937948203235, 1.0, 0.5604435064301588, 0.9174660054139234, 1.0, 2.403468768995903, 0.0824605981788175, 0.030657288950509554, 0.08956251553447651, 0.08523788642640678, 0.660948590735568]}, "trainWindow": {"requestedFrom": "2015-01-01", "requestedTo": "2022-12-31", "actualFrom": "2015-01-05", "actualTo": "2022-12-26", "samples": 417, "datasetHash": "3df5b4278465ff25"}, "metrics": {"cv_acc": 0.44927536231884063, "cv_logloss": 0.854728378569448, "samples": 417}}